/******************************************************************************
Copyright (c) 2023 Valerio Orlandini

Permission is hereby granted, free of charge, to any person obtaining a copy
of this software and associated documentation files (the "Software"), to deal
in the Software without restriction, including without limitation the rights
to use, copy, modify, merge, publish, distribute, sublicense, and/or sell
copies of the Software, and to permit persons to whom the Software is
furnished to do so, subject to the following conditions:

The above copyright notice and this permission notice shall be included in all
copies or substantial portions of the Software.

THE SOFTWARE IS PROVIDED "AS IS", WITHOUT WARRANTY OF ANY KIND, EXPRESS OR
IMPLIED, INCLUDING BUT NOT LIMITED TO THE WARRANTIES OF MERCHANTABILITY,
FITNESS FOR A PARTICULAR PURPOSE AND NONINFRINGEMENT. IN NO EVENT SHALL THE
AUTHORS OR COPYRIGHT HOLDERS BE LIABLE FOR ANY CLAIM, DAMAGES OR OTHER
LIABILITY, WHETHER IN AN ACTION OF CONTRACT, TORT OR OTHERWISE, ARISING FROM,
OUT OF OR IN CONNECTION WITH THE SOFTWARE OR THE USE OR OTHER DEALINGS IN THE
SOFTWARE.
******************************************************************************/

#ifndef NEUROWAVE_H_
#define NEUROWAVE_H_

#include <array>
#include <cmath>
#include <vector>

#include "window_functions.h"

using namespace soutel;

template <class TSample>
class Neurowave
{
public:
    Neurowave();
    inline void generate_wave(const bool &audio_range = true);

    void set_latent_parameter(const double &value, const int &index);
    void set_latent_space(const std::array<double, 8> &latent_space);

    std::vector<TSample> get_wavetable();
    std::array<TSample, 8> get_latent_space();

private:
    std::vector<TSample> wavetable_;
    std::array<double, 8> latent_ = {0.0, 0.0, 0.0, 0.0, 0.0, 0.0, 0.0, 0.0};
    double biases_[600] = {-2.223756909370422363e-01,
            -3.429079949855804443e-01,
            -3.400691449642181396e-01,
            -3.368275761604309082e-01,
            -3.489063978195190430e-01,
            -3.748783171176910400e-01,
            -3.939240872859954834e-01,
            -4.260124862194061279e-01,
            -4.561216533184051514e-01,
            -4.999682307243347168e-01,
            -5.449292063713073730e-01,
            -5.947409868240356445e-01,
            -6.263529658317565918e-01,
            -6.914098858833312988e-01,
            -7.312455773353576660e-01,
            -8.104134202003479004e-01,
            -8.637548089027404785e-01,
            -9.342510700225830078e-01,
            -9.819806218147277832e-01,
            -1.052020430564880371e+00,
            -1.096916913986206055e+00,
            -1.160663962364196777e+00,
            -1.207424521446228027e+00,
            -1.272301435470581055e+00,
            -1.301553487777709961e+00,
            -1.361360311508178711e+00,
            -1.383197903633117676e+00,
            -1.440556406974792480e+00,
            -1.472254395484924316e+00,
            -1.525014758110046387e+00,
            -1.551183462142944336e+00,
            -1.605760455131530762e+00,
            -1.643050551414489746e+00,
            -1.696528673171997070e+00,
            -1.710950255393981934e+00,
            -1.757378697395324707e+00,
            -1.781830072402954102e+00,
            -1.822306990623474121e+00,
            -1.838837981224060059e+00,
            -1.882940530776977539e+00,
            -1.879797339439392090e+00,
            -1.911355972290039062e+00,
            -1.909349203109741211e+00,
            -1.968873500823974609e+00,
            -1.975076556205749512e+00,
            -1.996765494346618652e+00,
            -1.992893695831298828e+00,
            -2.018434286117553711e+00,
            -2.009480476379394531e+00,
            -2.019679784774780273e+00,
            -2.015468835830688477e+00,
            -2.036577224731445312e+00,
            -2.016865491867065430e+00,
            -2.021468639373779297e+00,
            -1.993062973022460938e+00,
            -2.010962486267089844e+00,
            -1.986564278602600098e+00,
            -1.991129636764526367e+00,
            -1.960518240928649902e+00,
            -1.964698314666748047e+00,
            -1.926147580146789551e+00,
            -1.927506327629089355e+00,
            -1.891730427742004395e+00,
            -1.890545368194580078e+00,
            -1.850293993949890137e+00,
            -1.830265402793884277e+00,
            -1.778847575187683105e+00,
            -1.751179575920104980e+00,
            -1.703919053077697754e+00,
            -1.692939639091491699e+00,
            -1.641865611076354980e+00,
            -1.629116535186767578e+00,
            -1.573467850685119629e+00,
            -1.557948589324951172e+00,
            -1.498045563697814941e+00,
            -1.462542891502380371e+00,
            -1.388760924339294434e+00,
            -1.361993074417114258e+00,
            -1.306925177574157715e+00,
            -1.280263543128967285e+00,
            -1.212819337844848633e+00,
            -1.194908142089843750e+00,
            -1.149232625961303711e+00,
            -1.124101400375366211e+00,
            -1.074603557586669922e+00,
            -1.060231089591979980e+00,
            -1.001544356346130371e+00,
            -9.791830778121948242e-01,
            -9.373186230659484863e-01,
            -9.240266084671020508e-01,
            -8.769552111625671387e-01,
            -8.570348620414733887e-01,
            -8.228919506072998047e-01,
            -8.174257278442382812e-01,
            -7.684127092361450195e-01,
            -7.515035867691040039e-01,
            -7.040723562240600586e-01,
            -6.838110685348510742e-01,
            -6.433463096618652344e-01,
            -6.174184679985046387e-01,
            -5.973622202873229980e-01,
            -5.762060284614562988e-01,
            -5.482306480407714844e-01,
            -5.366414189338684082e-01,
            -5.109158754348754883e-01,
            -4.888160824775695801e-01,
            -4.551416337490081787e-01,
            -4.258766770362854004e-01,
            -3.974000215530395508e-01,
            -3.702891469001770020e-01,
            -3.448662161827087402e-01,
            -3.298152387142181396e-01,
            -2.993804216384887695e-01,
            -2.736183404922485352e-01,
            -2.462503015995025635e-01,
            -2.293375581502914429e-01,
            -2.129176408052444458e-01,
            -1.980084180831909180e-01,
            -1.866580098867416382e-01,
            -1.698939800262451172e-01,
            -1.611459255218505859e-01,
            -1.393881440162658691e-01,
            -1.250785589218139648e-01,
            -1.217365488409996033e-01,
            -1.082185730338096619e-01,
            -9.302943944931030273e-02,
            -7.862441986799240112e-02,
            -6.559023261070251465e-02,
            -5.492468923330307007e-02,
            -3.952275589108467102e-02,
            -2.932243049144744873e-02,
            -7.517010439187288284e-03,
            1.108775753527879715e-02,
            3.099648654460906982e-02,
            3.177005797624588013e-02,
            3.853539749979972839e-02,
            3.864610567688941956e-02,
            3.140093386173248291e-02,
            3.047884255647659302e-02,
            2.151019684970378876e-02,
            2.241613902151584625e-02,
            2.012730948626995087e-02,
            1.901687122881412506e-02,
            1.518307719379663467e-02,
            1.205335650593042374e-02,
            1.618237607181072235e-02,
            2.234614081680774689e-02,
            2.832211367785930634e-02,
            1.237757410854101181e-02,
            1.037578005343675613e-02,
            -2.737237955443561077e-04,
            -3.492868039757013321e-03,
            6.951991003006696701e-03,
            1.742222346365451813e-02,
            1.291532255709171295e-02,
            1.339458394795656204e-02,
            1.174322981387376785e-02,
            8.053436875343322754e-03,
            -2.937077624665107578e-05,
            -7.963615469634532928e-03,
            -1.353244390338659286e-02,
            -3.340553492307662964e-02,
            -3.452961891889572144e-02,
            -5.007764324545860291e-02,
            -5.233582854270935059e-02,
            -5.674429610371589661e-02,
            -4.396444559097290039e-02,
            -4.918113350868225098e-02,
            -4.337918385863304138e-02,
            -6.165082380175590515e-02,
            -5.462615191936492920e-02,
            -5.995767563581466675e-02,
            -5.285599082708358765e-02,
            -7.559856772422790527e-02,
            -8.028464764356613159e-02,
            -7.483464479446411133e-02,
            -6.302759796380996704e-02,
            -6.725356727838516235e-02,
            -5.035164207220077515e-02,
            -4.940696060657501221e-02,
            -3.831851109862327576e-02,
            -5.394159257411956787e-02,
            -4.810052365064620972e-02,
            -7.530686259269714355e-02,
            -7.539758831262588501e-02,
            -9.237039834260940552e-02,
            -1.011373028159141541e-01,
            -1.360598653554916382e-01,
            -1.318006366491317749e-01,
            -1.462410390377044678e-01,
            -1.508745849132537842e-01,
            -1.733851879835128784e-01,
            -1.759187132120132446e-01,
            -1.960977911949157715e-01,
            -2.080607265233993530e-01,
            -2.400064170360565186e-01,
            -2.534908950328826904e-01,
            -2.723809778690338135e-01,
            -2.664439082145690918e-01,
            -2.818255126476287842e-01,
            -2.835110425949096680e-01,
            -3.025827407836914062e-01,
            -2.898652851581573486e-01,
            -2.954458892345428467e-01,
            -2.868025898933410645e-01,
            -2.960518598556518555e-01,
            -2.953775227069854736e-01,
            -3.088593780994415283e-01,
            -2.975368201732635498e-01,
            -3.124086856842041016e-01,
            -3.073059916496276855e-01,
            -3.136004805564880371e-01,
            -2.964238524436950684e-01,
            -3.008337020874023438e-01,
            -2.779749929904937744e-01,
            -2.768935263156890869e-01,
            -2.594538927078247070e-01,
            -2.592273354530334473e-01,
            -2.537947595119476318e-01,
            -2.649353742599487305e-01,
            -2.457102835178375244e-01,
            -2.544846236705780029e-01,
            -2.407997399568557739e-01,
            -2.473131567239761353e-01,
            -2.349989712238311768e-01,
            -2.472591102123260498e-01,
            -2.257544547319412231e-01,
            -2.279693484306335449e-01,
            -2.129291743040084839e-01,
            -2.162629961967468262e-01,
            -2.086501866579055786e-01,
            -2.126335352659225464e-01,
            -2.195495516061782837e-01,
            -2.243215143680572510e-01,
            -2.055502235889434814e-01,
            -2.159100025892257690e-01,
            -1.931267976760864258e-01,
            -2.097557187080383301e-01,
            -2.021061331033706665e-01,
            -2.115996479988098145e-01,
            -1.935128420591354370e-01,
            -1.714216023683547974e-01,
            -1.507616192102432251e-01,
            -1.644388139247894287e-01,
            -1.568059921264648438e-01,
            -1.663275957107543945e-01,
            -1.609822660684585571e-01,
            -1.652861088514328003e-01,
            -1.422521173954010010e-01,
            -1.541856378316879272e-01,
            -1.423933058977127075e-01,
            -1.439087539911270142e-01,
            -1.321595907211303711e-01,
            -1.269410699605941772e-01,
            -1.242125108838081360e-01,
            -1.115056723356246948e-01,
            -1.012874618172645569e-01,
            -7.381881773471832275e-02,
            -7.278353720903396606e-02,
            -6.939258426427841187e-02,
            -7.434745132923126221e-02,
            -7.497518509626388550e-02,
            -8.467281609773635864e-02,
            -6.928764283657073975e-02,
            -4.748909175395965576e-02,
            -5.911211669445037842e-02,
            -6.850268691778182983e-02,
            -5.178265646100044250e-02,
            -5.089089646935462952e-02,
            -4.600400850176811218e-02,
            -4.342070594429969788e-02,
            -3.574124351143836975e-02,
            -4.225803539156913757e-02,
            -3.387900441884994507e-02,
            -2.963790856301784515e-02,
            -1.731078699231147766e-02,
            -2.276863530278205872e-02,
            -2.050831727683544159e-02,
            -2.244374528527259827e-02,
            -1.655425876379013062e-02,
            -3.232405334711074829e-02,
            -2.817763574421405792e-02,
            -2.137645892798900604e-02,
            -1.335683278739452362e-02,
            -2.139019966125488281e-02,
            -2.834580652415752411e-02,
            -2.757373638451099396e-02,
            -2.589767985045909882e-02,
            -2.917921543121337891e-02,
            -2.750219590961933136e-02,
            -5.109171196818351746e-02,
            -5.385020747780799866e-02,
            -7.439976930618286133e-02,
            -8.027172088623046875e-02,
            -9.672818332910537720e-02,
            -1.018110141158103943e-01,
            -1.236158087849617004e-01,
            -1.225342005491256714e-01,
            -1.175900921225547791e-01,
            -1.322831958532333374e-01,
            -2.320986390113830566e-01,
            -1.949723511934280396e-01,
            -1.837081164121627808e-01,
            -1.863711923360824585e-01,
            -1.821878552436828613e-01,
            -1.733252704143524170e-01,
            -1.772332489490509033e-01,
            -1.756821721792221069e-01,
            -1.880416572093963623e-01,
            -1.912544220685958862e-01,
            -2.127771526575088501e-01,
            -2.120301574468612671e-01,
            -2.341330200433731079e-01,
            -2.163900285959243774e-01,
            -2.288420498371124268e-01,
            -2.301256209611892700e-01,
            -2.283805757761001587e-01,
            -2.081949710845947266e-01,
            -2.057695984840393066e-01,
            -2.054357677698135376e-01,
            -2.129061222076416016e-01,
            -1.919995397329330444e-01,
            -1.789074242115020752e-01,
            -1.753643751144409180e-01,
            -1.784184426069259644e-01,
            -1.808384805917739868e-01,
            -1.839207708835601807e-01,
            -1.672586798667907715e-01,
            -1.570928692817687988e-01,
            -1.374966204166412354e-01,
            -1.249157413840293884e-01,
            -1.153133735060691833e-01,
            -1.089165061712265015e-01,
            -8.205665647983551025e-02,
            -7.049707323312759399e-02,
            -5.909533053636550903e-02,
            -2.202476002275943756e-02,
            7.352789863944053650e-03,
            3.333772718906402588e-02,
            3.924199566245079041e-02,
            3.763837367296218872e-02,
            5.188614502549171448e-02,
            6.064767390489578247e-02,
            9.067787230014801025e-02,
            1.089798957109451294e-01,
            1.095160245895385742e-01,
            1.302959173917770386e-01,
            1.421794593334197998e-01,
            1.542587280273437500e-01,
            1.557890176773071289e-01,
            1.784919947385787964e-01,
            2.004402279853820801e-01,
            2.100696116685867310e-01,
            2.136716395616531372e-01,
            2.216691672801971436e-01,
            2.194756418466567993e-01,
            2.212951034307479858e-01,
            2.256338447332382202e-01,
            2.380920499563217163e-01,
            2.450182139873504639e-01,
            2.605999410152435303e-01,
            2.663794755935668945e-01,
            2.780965864658355713e-01,
            2.818660736083984375e-01,
            3.048791587352752686e-01,
            3.141095936298370361e-01,
            3.342772126197814941e-01,
            3.410250246524810791e-01,
            3.634414970874786377e-01,
            3.708098530769348145e-01,
            3.863103091716766357e-01,
            3.897233009338378906e-01,
            4.164732098579406738e-01,
            4.154068231582641602e-01,
            4.416694343090057373e-01,
            4.548536837100982666e-01,
            4.725560843944549561e-01,
            4.763809740543365479e-01,
            4.947613775730133057e-01,
            4.977550804615020752e-01,
            5.157951116561889648e-01,
            5.091708898544311523e-01,
            5.278732180595397949e-01,
            5.194930434226989746e-01,
            5.286811590194702148e-01,
            5.231730341911315918e-01,
            5.350413918495178223e-01,
            5.249586701393127441e-01,
            5.341107249259948730e-01,
            5.271542668342590332e-01,
            5.357775688171386719e-01,
            5.300213098526000977e-01,
            5.443674325942993164e-01,
            5.426214337348937988e-01,
            5.556825995445251465e-01,
            5.501267910003662109e-01,
            5.646165609359741211e-01,
            5.546859502792358398e-01,
            5.692002773284912109e-01,
            5.555273890495300293e-01,
            5.428390502929687500e-01,
            5.411332845687866211e-01,
            5.411882996559143066e-01,
            5.338184237480163574e-01,
            5.213447809219360352e-01,
            5.144247412681579590e-01,
            5.044775605201721191e-01,
            4.873799085617065430e-01,
            4.681066572666168213e-01,
            4.476363360881805420e-01,
            4.205883443355560303e-01,
            4.163916110992431641e-01,
            3.842698037624359131e-01,
            3.721421360969543457e-01,
            3.516830801963806152e-01,
            3.445039689540863037e-01,
            3.117313683032989502e-01,
            2.973451316356658936e-01,
            2.683883011341094971e-01,
            2.523439526557922363e-01,
            2.316009849309921265e-01,
            2.265942394733428955e-01,
            1.817857772111892700e-01,
            1.811249107122421265e-01,
            1.611884385347366333e-01,
            1.574563682079315186e-01,
            1.296122223138809204e-01,
            1.151235178112983704e-01,
            9.419671446084976196e-02,
            8.769863843917846680e-02,
            6.917173415422439575e-02,
            4.518194869160652161e-02,
            1.596430502831935883e-02,
            5.683962255716323853e-03,
            -2.318968437612056732e-02,
            -3.195954114198684692e-02,
            -5.656135082244873047e-02,
            -6.346722692251205444e-02,
            -7.962806522846221924e-02,
            -8.646357059478759766e-02,
            -1.160776615142822266e-01,
            -1.254823207855224609e-01,
            -1.380597949028015137e-01,
            -1.424775421619415283e-01,
            -1.750639230012893677e-01,
            -1.723194718360900879e-01,
            -2.009580880403518677e-01,
            -2.204465717077255249e-01,
            -2.504015862941741943e-01,
            -2.728375196456909180e-01,
            -3.062010109424591064e-01,
            -3.139662146568298340e-01,
            -3.253588974475860596e-01,
            -3.267669081687927246e-01,
            -3.545849919319152832e-01,
            -3.549559712409973145e-01,
            -3.718526959419250488e-01,
            -3.771492540836334229e-01,
            -3.839211463928222656e-01,
            -3.806191086769104004e-01,
            -3.813069760799407959e-01,
            -3.772853016853332520e-01,
            -3.869571983814239502e-01,
            -3.899574875831604004e-01,
            -3.994122445583343506e-01,
            -3.823577463626861572e-01,
            -3.875436484813690186e-01,
            -3.873856961727142334e-01,
            -4.072273671627044678e-01,
            -4.065344929695129395e-01,
            -4.067499935626983643e-01,
            -3.922378122806549072e-01,
            -3.914769291877746582e-01,
            -3.882552385330200195e-01,
            -4.050363302230834961e-01,
            -3.928614854812622070e-01,
            -3.920578956604003906e-01,
            -3.440324068069458008e-01,
            -3.371064066886901855e-01,
            -3.144602775573730469e-01,
            -3.164059817790985107e-01,
            -3.095887899398803711e-01,
            -3.077146410942077637e-01,
            -2.959372103214263916e-01,
            -2.887929081916809082e-01,
            -2.625444233417510986e-01,
            -2.553810775279998779e-01,
            -2.421476393938064575e-01,
            -2.325133979320526123e-01,
            -2.127028852701187134e-01,
            -2.024169564247131348e-01,
            -1.844375729560852051e-01,
            -1.729473620653152466e-01,
            -1.525404006242752075e-01,
            -1.342949122190475464e-01,
            -1.072137877345085144e-01,
            -9.250897169113159180e-02,
            -6.880172342061996460e-02,
            -5.118117853999137878e-02,
            -9.199916385114192963e-03,
            1.316307112574577332e-02,
            3.719463944435119629e-02,
            5.522452667355537415e-02,
            8.660052716732025146e-02,
            1.083020418882369995e-01,
            1.465219259262084961e-01,
            1.896701455116271973e-01,
            2.348442077636718750e-01,
            2.595084607601165771e-01,
            2.913967967033386230e-01,
            3.138975799083709717e-01,
            3.522758781909942627e-01,
            3.799721896648406982e-01,
            4.068369567394256592e-01,
            4.414870142936706543e-01,
            4.756441116333007812e-01,
            5.038508176803588867e-01,
            5.336518883705139160e-01,
            5.576897263526916504e-01,
            5.805177688598632812e-01,
            6.082113385200500488e-01,
            6.425612568855285645e-01,
            6.741246581077575684e-01,
            7.057676315307617188e-01,
            7.383320331573486328e-01,
            7.782350182533264160e-01,
            8.112749457359313965e-01,
            8.516784310340881348e-01,
            8.744627833366394043e-01,
            9.088141322135925293e-01,
            9.277539849281311035e-01,
            9.569225907325744629e-01,
            9.701747298240661621e-01,
            9.951345920562744141e-01,
            1.005080580711364746e+00,
            1.020938754081726074e+00,
            1.039582133293151855e+00,
            1.067350387573242188e+00,
            1.086170077323913574e+00,
            1.114778518676757812e+00,
            1.135942339897155762e+00,
            1.156097888946533203e+00,
            1.162879109382629395e+00,
            1.179802536964416504e+00,
            1.192351937294006348e+00,
            1.210666418075561523e+00,
            1.217431545257568359e+00,
            1.224625468254089355e+00,
            1.246609330177307129e+00,
            1.263982892036437988e+00,
            1.277418613433837891e+00,
            1.288527011871337891e+00,
            1.296594858169555664e+00,
            1.303196191787719727e+00,
            1.317695617675781250e+00,
            1.318651914596557617e+00,
            1.327350139617919922e+00,
            1.331429004669189453e+00,
            1.335920691490173340e+00,
            1.325890421867370605e+00,
            1.331719279289245605e+00,
            1.335130453109741211e+00,
            1.342294216156005859e+00,
            1.344727277755737305e+00,
            1.341194033622741699e+00,
            1.320994734764099121e+00,
            1.335497021675109863e+00,
            1.323034763336181641e+00,
            1.327320933341979980e+00,
            1.321455955505371094e+00,
            1.310816764831542969e+00,
            1.288541555404663086e+00,
            1.269875407218933105e+00,
            1.242587208747863770e+00,
            1.221737265586853027e+00,
            1.182424664497375488e+00,
            1.135752439498901367e+00,
            1.102151989936828613e+00,
            1.083140850067138672e+00,
            1.050190329551696777e+00,
            1.016717314720153809e+00,
            9.662855267524719238e-01,
            9.265000224113464355e-01,
            8.939259052276611328e-01,
            8.541171550750732422e-01,
            8.062854409217834473e-01,
            7.733681797981262207e-01,
            7.321216464042663574e-01,
            6.930395960807800293e-01,
            6.454474329948425293e-01,
            6.099909543991088867e-01,
            5.691775083541870117e-01,
            5.435842871665954590e-01,
            5.079274773597717285e-01,
            4.947426021099090576e-01,
            4.650087356567382812e-01,
            4.475824534893035889e-01,
            4.041194319725036621e-01,
            3.313216865062713623e-01,
            2.272714525461196899e-01
    };

    double weights_[8][600] =
    {
        {
            -3.446003422141075134e-02,
            -6.005727499723434448e-02,
            -7.155735045671463013e-02,
            -7.679873704910278320e-02,
            -7.754760980606079102e-02,
            -7.723607867956161499e-02,
            -7.605199515819549561e-02,
            -7.197685539722442627e-02,
            -7.075972110033035278e-02,
            -6.795020401477813721e-02,
            -6.553921103477478027e-02,
            -6.177337467670440674e-02,
            -5.982546508312225342e-02,
            -5.511748790740966797e-02,
            -5.236651748418807983e-02,
            -4.678251594305038452e-02,
            -4.475570470094680786e-02,
            -3.698686137795448303e-02,
            -3.203815594315528870e-02,
            -2.590728364884853363e-02,
            -2.254185825586318970e-02,
            -1.471953932195901871e-02,
            -1.008078642189502716e-02,
            -4.153705667704343796e-03,
            1.110054727178066969e-04,
            7.889392785727977753e-03,
            1.248182728886604309e-02,
            2.068063989281654358e-02,
            2.869718521833419800e-02,
            3.477433696389198303e-02,
            4.068567231297492981e-02,
            5.053250864148139954e-02,
            5.984559282660484314e-02,
            6.624223291873931885e-02,
            7.204322516918182373e-02,
            7.854873687028884888e-02,
            8.579078316688537598e-02,
            9.294597059488296509e-02,
            9.840362519025802612e-02,
            1.043298020958900452e-01,
            1.066727712750434875e-01,
            1.125182136893272400e-01,
            1.171812713146209717e-01,
            1.318972557783126831e-01,
            1.383391320705413818e-01,
            1.433955430984497070e-01,
            1.469932198524475098e-01,
            1.524100154638290405e-01,
            1.552964150905609131e-01,
            1.595677733421325684e-01,
            1.627601236104965210e-01,
            1.680966168642044067e-01,
            1.680476516485214233e-01,
            1.703814417123794556e-01,
            1.610208004713058472e-01,
            1.627654135227203369e-01,
            1.618188321590423584e-01,
            1.633585244417190552e-01,
            1.634476929903030396e-01,
            1.650876700878143311e-01,
            1.634563803672790527e-01,
            1.677302420139312744e-01,
            1.662053912878036499e-01,
            1.664917618036270142e-01,
            1.639067828655242920e-01,
            1.648971438407897949e-01,
            1.644325256347656250e-01,
            1.654531061649322510e-01,
            1.617188155651092529e-01,
            1.613578796386718750e-01,
            1.585536748170852661e-01,
            1.587848216295242310e-01,
            1.539802849292755127e-01,
            1.509867161512374878e-01,
            1.460074484348297119e-01,
            1.478073894977569580e-01,
            1.459235101938247681e-01,
            1.438926458358764648e-01,
            1.395399421453475952e-01,
            1.347114890813827515e-01,
            1.283134073019027710e-01,
            1.282351016998291016e-01,
            1.315104067325592041e-01,
            1.236059814691543579e-01,
            1.184802055358886719e-01,
            1.139458343386650085e-01,
            1.043077185750007629e-01,
            9.726207703351974487e-02,
            9.258350729942321777e-02,
            9.122921526432037354e-02,
            8.477088063955307007e-02,
            8.143707364797592163e-02,
            7.726803421974182129e-02,
            7.509755343198776245e-02,
            6.804987788200378418e-02,
            6.352624297142028809e-02,
            5.248132348060607910e-02,
            3.968431428074836731e-02,
            3.116561844944953918e-02,
            2.408360317349433899e-02,
            2.212630398571491241e-02,
            1.712790504097938538e-02,
            7.364801131188869476e-03,
            7.477418403141200542e-04,
            -5.079960450530052185e-03,
            -1.039853226393461227e-02,
            -1.825158484280109406e-02,
            -3.234780952334403992e-02,
            -3.959043323993682861e-02,
            -4.374738037586212158e-02,
            -5.766525492072105408e-02,
            -6.461860239505767822e-02,
            -6.998219341039657593e-02,
            -7.886749505996704102e-02,
            -8.667614310979843140e-02,
            -9.547571092844009399e-02,
            -1.019034236669540405e-01,
            -1.093098297715187073e-01,
            -1.170851886272430420e-01,
            -1.242791339755058289e-01,
            -1.315683573484420776e-01,
            -1.397006958723068237e-01,
            -1.467767357826232910e-01,
            -1.579350829124450684e-01,
            -1.652273386716842651e-01,
            -1.729010492563247681e-01,
            -1.795144379138946533e-01,
            -1.860520988702774048e-01,
            -1.915969550609588623e-01,
            -1.954288184642791748e-01,
            -1.992491036653518677e-01,
            -2.024625688791275024e-01,
            -2.048949450254440308e-01,
            -2.083398699760437012e-01,
            -2.111824750900268555e-01,
            -2.116331160068511963e-01,
            -2.095591574907302856e-01,
            -2.063538134098052979e-01,
            -2.086736261844635010e-01,
            -2.072558701038360596e-01,
            -2.079031467437744141e-01,
            -2.048568278551101685e-01,
            -2.048437595367431641e-01,
            -2.015548944473266602e-01,
            -2.007066160440444946e-01,
            -1.969996988773345947e-01,
            -1.935612261295318604e-01,
            -1.843945086002349854e-01,
            -1.768236607313156128e-01,
            -1.683858931064605713e-01,
            -1.415627747774124146e-01,
            -1.284893453121185303e-01,
            -1.220393404364585876e-01,
            -1.097598671913146973e-01,
            -1.025934964418411255e-01,
            -9.427849948406219482e-02,
            -8.663547039031982422e-02,
            -7.591387629508972168e-02,
            -6.780864298343658447e-02,
            -5.781470239162445068e-02,
            -4.707449302077293396e-02,
            -3.839951008558273315e-02,
            -2.818439155817031860e-02,
            -1.598544418811798096e-02,
            -1.002115104347467422e-02,
            7.287831511348485947e-03,
            1.800085045397281647e-02,
            2.928139083087444305e-02,
            4.005426540970802307e-02,
            5.599153786897659302e-02,
            7.133556902408599854e-02,
            8.082596212625503540e-02,
            8.906860649585723877e-02,
            1.027524694800376892e-01,
            1.148319095373153687e-01,
            1.358976960182189941e-01,
            1.592345982789993286e-01,
            1.726084351539611816e-01,
            1.808299273252487183e-01,
            1.901666969060897827e-01,
            1.986269205808639526e-01,
            2.112069875001907349e-01,
            2.256631404161453247e-01,
            2.326295524835586548e-01,
            2.423111349344253540e-01,
            2.553980946540832520e-01,
            2.689546942710876465e-01,
            2.844048440456390381e-01,
            2.921758592128753662e-01,
            3.054634332656860352e-01,
            3.126207292079925537e-01,
            3.223181068897247314e-01,
            3.368834853172302246e-01,
            3.481005132198333740e-01,
            3.575244545936584473e-01,
            3.714649379253387451e-01,
            3.821088671684265137e-01,
            4.012644588947296143e-01,
            4.090867042541503906e-01,
            4.185037612915039062e-01,
            4.255577325820922852e-01,
            4.352612793445587158e-01,
            4.488715231418609619e-01,
            4.597991108894348145e-01,
            4.637812972068786621e-01,
            4.734707474708557129e-01,
            4.834919869899749756e-01,
            4.902724325656890869e-01,
            4.940266013145446777e-01,
            4.996698200702667236e-01,
            5.024788975715637207e-01,
            5.082299709320068359e-01,
            5.113052129745483398e-01,
            5.192900300025939941e-01,
            5.228269100189208984e-01,
            5.243186950683593750e-01,
            5.273913741111755371e-01,
            5.307939648628234863e-01,
            5.309591293334960938e-01,
            5.357363224029541016e-01,
            5.361284613609313965e-01,
            5.404377579689025879e-01,
            5.433949828147888184e-01,
            5.517423748970031738e-01,
            5.558863878250122070e-01,
            5.612914562225341797e-01,
            5.628492832183837891e-01,
            5.644162297248840332e-01,
            5.633979439735412598e-01,
            5.626133084297180176e-01,
            5.612014532089233398e-01,
            5.639104247093200684e-01,
            5.607066154479980469e-01,
            5.630773305892944336e-01,
            5.626205801963806152e-01,
            5.655037164688110352e-01,
            5.624691247940063477e-01,
            5.626316666603088379e-01,
            5.590432882308959961e-01,
            5.553183555603027344e-01,
            5.530823469161987305e-01,
            5.443199276924133301e-01,
            5.381501913070678711e-01,
            5.331515073776245117e-01,
            5.245776772499084473e-01,
            5.252396464347839355e-01,
            5.234025716781616211e-01,
            5.246501564979553223e-01,
            5.187392234802246094e-01,
            5.142884850502014160e-01,
            5.071972012519836426e-01,
            5.096942186355590820e-01,
            5.001117587089538574e-01,
            4.921641945838928223e-01,
            4.802445471286773682e-01,
            4.729927778244018555e-01,
            4.643289148807525635e-01,
            4.515860676765441895e-01,
            4.413663446903228760e-01,
            4.338145554065704346e-01,
            4.226883053779602051e-01,
            4.171259105205535889e-01,
            4.085177183151245117e-01,
            4.022361636161804199e-01,
            3.941867947578430176e-01,
            3.853503167629241943e-01,
            3.787720203399658203e-01,
            3.723575770854949951e-01,
            3.626392483711242676e-01,
            3.538011610507965088e-01,
            3.484258055686950684e-01,
            3.430366218090057373e-01,
            3.377144932746887207e-01,
            3.338620066642761230e-01,
            3.280426859855651855e-01,
            3.241954743862152100e-01,
            3.168756365776062012e-01,
            3.129669725894927979e-01,
            3.085366487503051758e-01,
            3.069215118885040283e-01,
            3.034863173961639404e-01,
            3.048518002033233643e-01,
            3.067536950111389160e-01,
            3.069864511489868164e-01,
            3.071685731410980225e-01,
            3.095208108425140381e-01,
            3.115346133708953857e-01,
            3.150337636470794678e-01,
            3.165328204631805420e-01,
            3.208068013191223145e-01,
            3.259418904781341553e-01,
            3.373824059963226318e-01,
            3.425666093826293945e-01,
            3.522584438323974609e-01,
            3.580540716648101807e-01,
            3.668846189975738525e-01,
            3.744795918464660645e-01,
            3.865906298160552979e-01,
            3.971070647239685059e-01,
            4.469984173774719238e-01,
            5.287603139877319336e-01,
            5.655749440193176270e-01,
            5.758629441261291504e-01,
            5.892629623413085938e-01,
            5.989006161689758301e-01,
            6.079094409942626953e-01,
            6.156080961227416992e-01,
            6.196346282958984375e-01,
            6.239395141601562500e-01,
            6.302727460861206055e-01,
            6.357207298278808594e-01,
            6.408373713493347168e-01,
            6.449627876281738281e-01,
            6.478873491287231445e-01,
            6.506159901618957520e-01,
            6.538955569267272949e-01,
            6.570035219192504883e-01,
            6.568414568901062012e-01,
            6.532011628150939941e-01,
            6.545814275741577148e-01,
            6.516975164413452148e-01,
            6.512550711631774902e-01,
            6.480649709701538086e-01,
            6.494502425193786621e-01,
            6.462296843528747559e-01,
            6.460356116294860840e-01,
            6.424648165702819824e-01,
            6.404323577880859375e-01,
            6.361981034278869629e-01,
            6.350693106651306152e-01,
            6.303962469100952148e-01,
            6.292476654052734375e-01,
            6.241793036460876465e-01,
            6.193417310714721680e-01,
            6.126145124435424805e-01,
            6.095364689826965332e-01,
            5.944954752922058105e-01,
            5.885919928550720215e-01,
            5.803408622741699219e-01,
            5.753043889999389648e-01,
            5.702639222145080566e-01,
            5.653594136238098145e-01,
            5.578428506851196289e-01,
            5.461060404777526855e-01,
            5.346605777740478516e-01,
            5.208512544631958008e-01,
            5.089459419250488281e-01,
            5.035119652748107910e-01,
            4.950636327266693115e-01,
            4.896478354930877686e-01,
            4.775767624378204346e-01,
            4.658268988132476807e-01,
            4.569523632526397705e-01,
            4.448288083076477051e-01,
            4.307053089141845703e-01,
            4.168299436569213867e-01,
            3.995067775249481201e-01,
            3.860450685024261475e-01,
            3.728547990322113037e-01,
            3.650702238082885742e-01,
            3.541763722896575928e-01,
            3.441619277000427246e-01,
            3.344471752643585205e-01,
            3.256168365478515625e-01,
            3.120019137859344482e-01,
            2.997679710388183594e-01,
            2.865855991840362549e-01,
            2.769312262535095215e-01,
            2.638224959373474121e-01,
            2.535182833671569824e-01,
            2.338761240243911743e-01,
            2.232065200805664062e-01,
            2.070381194353103638e-01,
            1.990147680044174194e-01,
            1.850782185792922974e-01,
            1.735834479331970215e-01,
            1.620213538408279419e-01,
            1.542463153600692749e-01,
            1.428571939468383789e-01,
            1.313678920269012451e-01,
            1.199233233928680420e-01,
            1.112581193447113037e-01,
            1.001800447702407837e-01,
            9.110194444656372070e-02,
            7.740726321935653687e-02,
            6.708925217390060425e-02,
            5.275817587971687317e-02,
            4.087753221392631531e-02,
            2.852612920105457306e-02,
            2.209263108670711517e-02,
            1.408441364765167236e-02,
            6.936278659850358963e-03,
            -4.561877809464931488e-03,
            -1.992223598062992096e-02,
            -3.407257050275802612e-02,
            -4.471839964389801025e-02,
            -5.643703788518905640e-02,
            -6.498574465513229370e-02,
            -7.557122409343719482e-02,
            -8.424550294876098633e-02,
            -9.267834573984146118e-02,
            -9.943457692861557007e-02,
            -1.081494763493537903e-01,
            -1.118548065423965454e-01,
            -1.199508383870124817e-01,
            -1.254447698593139648e-01,
            -1.325191557407379150e-01,
            -1.373391002416610718e-01,
            -1.441715806722640991e-01,
            -1.492420583963394165e-01,
            -1.598351448774337769e-01,
            -1.639526039361953735e-01,
            -1.732086241245269775e-01,
            -1.764773875474929810e-01,
            -1.820015609264373779e-01,
            -1.840257048606872559e-01,
            -1.890056282281875610e-01,
            -1.901921927928924561e-01,
            -1.963791549205780029e-01,
            -1.990551501512527466e-01,
            -2.042719423770904541e-01,
            -2.068832963705062866e-01,
            -2.008766978979110718e-01,
            -1.994255930185317993e-01,
            -2.027760744094848633e-01,
            -1.982995420694351196e-01,
            -1.970460414886474609e-01,
            -1.951582133769989014e-01,
            -1.974836289882659912e-01,
            -1.961036622524261475e-01,
            -1.970752924680709839e-01,
            -1.952687799930572510e-01,
            -2.014123797416687012e-01,
            -2.070715278387069702e-01,
            -2.086425274610519409e-01,
            -2.084386050701141357e-01,
            -2.085950672626495361e-01,
            -2.079917490482330322e-01,
            -2.046665251255035400e-01,
            -1.991295516490936279e-01,
            -1.973056346178054810e-01,
            -1.925820410251617432e-01,
            -1.896030157804489136e-01,
            -1.859818994998931885e-01,
            -1.832003444433212280e-01,
            -1.791774779558181763e-01,
            -1.769914776086807251e-01,
            -1.770679801702499390e-01,
            -1.703156083822250366e-01,
            -1.630495190620422363e-01,
            -1.537836343050003052e-01,
            -1.484517455101013184e-01,
            -1.468059718608856201e-01,
            -1.427603960037231445e-01,
            -1.457799524068832397e-01,
            -1.422148942947387695e-01,
            -1.417776495218276978e-01,
            -1.386640071868896484e-01,
            -1.397226452827453613e-01,
            -1.364846378564834595e-01,
            -1.375092864036560059e-01,
            -1.360635310411453247e-01,
            -1.365994065999984741e-01,
            -1.359901428222656250e-01,
            -1.359856128692626953e-01,
            -1.237759962677955627e-01,
            -1.246135458350181580e-01,
            -1.258651912212371826e-01,
            -1.275030076503753662e-01,
            -1.227234005928039551e-01,
            -1.237835735082626343e-01,
            -1.242715269327163696e-01,
            -1.268318295478820801e-01,
            -1.250151842832565308e-01,
            -1.278339326381683350e-01,
            -1.277024894952774048e-01,
            -1.329384297132492065e-01,
            -1.433250606060028076e-01,
            -1.467470824718475342e-01,
            -1.477527171373367310e-01,
            -1.492635607719421387e-01,
            -1.505459249019622803e-01,
            -1.530779749155044556e-01,
            -1.536683887243270874e-01,
            -1.552024185657501221e-01,
            -1.461951732635498047e-01,
            -1.498155593872070312e-01,
            -1.504319310188293457e-01,
            -1.576397269964218140e-01,
            -1.552101224660873413e-01,
            -1.631227433681488037e-01,
            -1.628296822309494019e-01,
            -1.637737303972244263e-01,
            -1.623168289661407471e-01,
            -1.656407266855239868e-01,
            -1.638845801353454590e-01,
            -1.650303453207015991e-01,
            -1.639094352722167969e-01,
            -1.651428043842315674e-01,
            -1.627516299486160278e-01,
            -1.645641922950744629e-01,
            -1.634750366210937500e-01,
            -1.657842993736267090e-01,
            -1.650030016899108887e-01,
            -1.619220525026321411e-01,
            -1.610648781061172485e-01,
            -1.616942286491394043e-01,
            -1.585660874843597412e-01,
            -1.583698540925979614e-01,
            -1.569287627935409546e-01,
            -1.575376540422439575e-01,
            -1.477363407611846924e-01,
            -1.494411081075668335e-01,
            -1.470115482807159424e-01,
            -1.476566195487976074e-01,
            -1.463004201650619507e-01,
            -1.518726348876953125e-01,
            -1.527666151523590088e-01,
            -1.551067084074020386e-01,
            -1.557515412569046021e-01,
            -1.570430248975753784e-01,
            -1.566778123378753662e-01,
            -1.609730124473571777e-01,
            -1.642314493656158447e-01,
            -1.649071872234344482e-01,
            -1.676113307476043701e-01,
            -1.647753268480300903e-01,
            -1.692401170730590820e-01,
            -1.692008078098297119e-01,
            -1.716486662626266479e-01,
            -1.718656718730926514e-01,
            -1.718542873859405518e-01,
            -1.705373078584671021e-01,
            -1.703997403383255005e-01,
            -1.694876104593276978e-01,
            -1.681133806705474854e-01,
            -1.709773838520050049e-01,
            -1.755401790142059326e-01,
            -1.815397143363952637e-01,
            -1.853186339139938354e-01,
            -1.842954009771347046e-01,
            -1.825206875801086426e-01,
            -1.791901737451553345e-01,
            -1.772830337285995483e-01,
            -1.728889793157577515e-01,
            -1.703957617282867432e-01,
            -1.659599840641021729e-01,
            -1.634064763784408569e-01,
            -1.619264334440231323e-01,
            -1.607301235198974609e-01,
            -1.608241647481918335e-01,
            -1.592821776866912842e-01,
            -1.550295948982238770e-01,
            -1.580996215343475342e-01,
            -1.584266573190689087e-01,
            -1.557625085115432739e-01,
            -1.517750918865203857e-01,
            -1.489424109458923340e-01,
            -1.453282833099365234e-01,
            -1.417255401611328125e-01,
            -1.452875882387161255e-01,
            -1.488738954067230225e-01,
            -1.467808634042739868e-01,
            -1.424404680728912354e-01,
            -1.318306624889373779e-01,
            -1.299684047698974609e-01,
            -1.472304314374923706e-01,
            -1.434375941753387451e-01,
            -1.411918550729751587e-01,
            -1.374329030513763428e-01,
            -1.337642520666122437e-01,
            -1.320325881242752075e-01,
            -1.260715574026107788e-01,
            -1.235140711069107056e-01,
            -1.201642826199531555e-01,
            -1.135897412896156311e-01,
            -9.992147982120513916e-02,
            -9.337171167135238647e-02,
            -8.932884782552719116e-02,
            -8.615086972713470459e-02,
            -8.088907599449157715e-02,
            -7.349500805139541626e-02,
            -6.413460522890090942e-02,
            -5.883733555674552917e-02,
            -5.405195429921150208e-02,
            -5.127895995974540710e-02,
            -4.854991286993026733e-02,
            -4.480180144309997559e-02,
            -3.617147728800773621e-02,
            -3.115667589008808136e-02,
            -2.502693794667720795e-02,
            -2.146020717918872833e-02,
            -1.666162908077239990e-02,
            -1.381746120750904083e-02,
            -9.373010136187076569e-03,
            -8.189729414880275726e-03,
            -2.768624806776642799e-03,
            -6.015336257405579090e-04,
            1.781233702786266804e-03,
            -6.457056384533643723e-03
        },

        {
            1.802351325750350952e-02,
            4.606683924794197083e-02,
            5.525348708033561707e-02,
            6.332977861166000366e-02,
            6.846231967210769653e-02,
            7.188746333122253418e-02,
            7.364851236343383789e-02,
            7.376344501972198486e-02,
            7.559693604707717896e-02,
            7.823979854583740234e-02,
            8.016675710678100586e-02,
            8.156818896532058716e-02,
            8.289074897766113281e-02,
            8.333420008420944214e-02,
            8.538693189620971680e-02,
            8.601815998554229736e-02,
            9.045321494340896606e-02,
            9.237145632505416870e-02,
            9.426314383745193481e-02,
            9.742619842290878296e-02,
            1.001565903425216675e-01,
            1.015336439013481140e-01,
            1.029127761721611023e-01,
            1.034916788339614868e-01,
            1.058359369635581970e-01,
            1.056596189737319946e-01,
            1.083610206842422485e-01,
            1.103228330612182617e-01,
            1.150046214461326599e-01,
            1.171159222722053528e-01,
            1.200365275144577026e-01,
            1.217625439167022705e-01,
            1.256367713212966919e-01,
            1.285304129123687744e-01,
            1.303263604640960693e-01,
            1.310915201902389526e-01,
            1.314603239297866821e-01,
            1.294567584991455078e-01,
            1.293043196201324463e-01,
            1.279225051403045654e-01,
            1.280860751867294312e-01,
            1.283320188522338867e-01,
            1.274412125349044800e-01,
            1.150823235511779785e-01,
            1.118022650480270386e-01,
            1.100787073373794556e-01,
            1.082536727190017700e-01,
            1.065896451473236084e-01,
            1.053051948547363281e-01,
            1.016562208533287048e-01,
            1.005009561777114868e-01,
            9.747722744941711426e-02,
            9.379137307405471802e-02,
            8.977966010570526123e-02,
            8.828669041395187378e-02,
            8.540918678045272827e-02,
            8.089397102594375610e-02,
            7.594352960586547852e-02,
            7.003583014011383057e-02,
            6.599545478820800781e-02,
            6.341049075126647949e-02,
            5.710279941558837891e-02,
            5.291652306914329529e-02,
            4.741911590099334717e-02,
            4.340615496039390564e-02,
            3.820829838514328003e-02,
            3.250701352953910828e-02,
            2.792181447148323059e-02,
            2.050629071891307831e-02,
            1.465372461825609207e-02,
            7.866984233260154724e-03,
            1.478277030400931835e-03,
            -1.039250381290912628e-02,
            -1.938312314450740814e-02,
            -2.473133988678455353e-02,
            -3.514375910162925720e-02,
            -4.686962068080902100e-02,
            -5.638774856925010681e-02,
            -6.366626173257827759e-02,
            -7.297277450561523438e-02,
            -8.067440241575241089e-02,
            -9.012084454298019409e-02,
            -9.924960881471633911e-02,
            -1.072038784623146057e-01,
            -1.118286103010177612e-01,
            -1.181752532720565796e-01,
            -1.242460310459136963e-01,
            -1.307196617126464844e-01,
            -1.376584619283676147e-01,
            -1.472045332193374634e-01,
            -1.565797179937362671e-01,
            -1.686478555202484131e-01,
            -1.759328991174697876e-01,
            -1.892231702804565430e-01,
            -1.980059146881103516e-01,
            -2.093115299940109253e-01,
            -2.152829766273498535e-01,
            -2.277620732784271240e-01,
            -2.326993793249130249e-01,
            -2.460173964500427246e-01,
            -2.675117552280426025e-01,
            -2.730804979801177979e-01,
            -2.794844210147857666e-01,
            -2.847957313060760498e-01,
            -2.892899513244628906e-01,
            -2.977585792541503906e-01,
            -2.997774183750152588e-01,
            -3.042587041854858398e-01,
            -3.057794272899627686e-01,
            -3.105650246143341064e-01,
            -3.076155781745910645e-01,
            -3.084096312522888184e-01,
            -3.096850812435150146e-01,
            -3.123567104339599609e-01,
            -3.209615349769592285e-01,
            -3.244639337062835693e-01,
            -3.297047913074493408e-01,
            -3.356296718120574951e-01,
            -3.365073800086975098e-01,
            -3.413019478321075439e-01,
            -3.404465019702911377e-01,
            -3.406496047973632812e-01,
            -3.388606607913970947e-01,
            -3.405307829380035400e-01,
            -3.414667546749114990e-01,
            -3.443929255008697510e-01,
            -3.425464034080505371e-01,
            -3.458806872367858887e-01,
            -3.428576886653900146e-01,
            -3.449173569679260254e-01,
            -3.422190248966217041e-01,
            -3.426032364368438721e-01,
            -3.409302234649658203e-01,
            -3.398268818855285645e-01,
            -3.351763784885406494e-01,
            -3.391351401805877686e-01,
            -3.351886272430419922e-01,
            -3.283405005931854248e-01,
            -3.208443224430084229e-01,
            -3.151973783969879150e-01,
            -3.059994876384735107e-01,
            -3.024676144123077393e-01,
            -3.006265163421630859e-01,
            -2.971262335777282715e-01,
            -2.910702228546142578e-01,
            -2.891945540904998779e-01,
            -2.884178161621093750e-01,
            -2.846164405345916748e-01,
            -2.809508740901947021e-01,
            -2.816132903099060059e-01,
            -2.742237150669097900e-01,
            -2.759890258312225342e-01,
            -2.667983472347259521e-01,
            -2.660299837589263916e-01,
            -2.607877552509307861e-01,
            -2.586257159709930420e-01,
            -2.523706555366516113e-01,
            -2.515615224838256836e-01,
            -2.442010492086410522e-01,
            -2.405192106962203979e-01,
            -2.296642065048217773e-01,
            -2.195909172296524048e-01,
            -2.105224132537841797e-01,
            -2.049173563718795776e-01,
            -1.936995536088943481e-01,
            -1.927506625652313232e-01,
            -1.837266087532043457e-01,
            -1.751864999532699585e-01,
            -1.722870767116546631e-01,
            -1.646199673414230347e-01,
            -1.564290821552276611e-01,
            -1.475698202848434448e-01,
            -1.383513659238815308e-01,
            -1.279534548521041870e-01,
            -1.085408776998519897e-01,
            -1.013600453734397888e-01,
            -9.919558465480804443e-02,
            -9.137079864740371704e-02,
            -8.098936080932617188e-02,
            -7.234499603509902954e-02,
            -6.170571967959403992e-02,
            -5.428748577833175659e-02,
            -4.502465203404426575e-02,
            -2.990835160017013550e-02,
            -1.890317723155021667e-02,
            -1.152810454368591309e-02,
            -1.509222900494933128e-03,
            1.255781203508377075e-02,
            2.125820890069007874e-02,
            2.582663297653198242e-02,
            3.296479582786560059e-02,
            4.282857850193977356e-02,
            5.090961232781410217e-02,
            6.549651175737380981e-02,
            7.625760138034820557e-02,
            8.553341031074523926e-02,
            9.741047024726867676e-02,
            1.078200712800025940e-01,
            1.187646910548210144e-01,
            1.304088085889816284e-01,
            1.434201747179031372e-01,
            1.489472538232803345e-01,
            1.586316674947738647e-01,
            1.686991155147552490e-01,
            1.780212223529815674e-01,
            1.914497017860412598e-01,
            1.994640380144119263e-01,
            2.097280323505401611e-01,
            2.202231287956237793e-01,
            2.246304303407669067e-01,
            2.318097352981567383e-01,
            2.373804897069931030e-01,
            2.434455901384353638e-01,
            2.466968446969985962e-01,
            2.535329759120941162e-01,
            2.600700259208679199e-01,
            2.674716413021087646e-01,
            2.751423120498657227e-01,
            2.810862958431243896e-01,
            2.855809032917022705e-01,
            2.914378046989440918e-01,
            3.006734251976013184e-01,
            3.058626055717468262e-01,
            3.082998692989349365e-01,
            3.147500157356262207e-01,
            3.200741708278656006e-01,
            3.207722902297973633e-01,
            3.230659961700439453e-01,
            3.273749351501464844e-01,
            3.308530449867248535e-01,
            3.361772596836090088e-01,
            3.388957381248474121e-01,
            3.411922752857208252e-01,
            3.441168367862701416e-01,
            3.435803651809692383e-01,
            3.441229760646820068e-01,
            3.497363626956939697e-01,
            3.505029082298278809e-01,
            3.507008552551269531e-01,
            3.477847278118133545e-01,
            3.453294336795806885e-01,
            3.522194623947143555e-01,
            3.516222834587097168e-01,
            3.515359461307525635e-01,
            3.496128320693969727e-01,
            3.451656997203826904e-01,
            3.417904376983642578e-01,
            3.336631357669830322e-01,
            3.306957781314849854e-01,
            3.276621699333190918e-01,
            3.258159458637237549e-01,
            3.150392770767211914e-01,
            3.119455873966217041e-01,
            3.087560832500457764e-01,
            2.926170229911804199e-01,
            2.835581600666046143e-01,
            2.763122916221618652e-01,
            2.734565734863281250e-01,
            2.717337906360626221e-01,
            2.639689445495605469e-01,
            2.618309557437896729e-01,
            2.552715241909027100e-01,
            2.494835704565048218e-01,
            2.287171483039855957e-01,
            2.069088667631149292e-01,
            1.977107077836990356e-01,
            1.895357072353363037e-01,
            1.806791126728057861e-01,
            1.715756952762603760e-01,
            1.624839305877685547e-01,
            1.553983837366104126e-01,
            1.472721099853515625e-01,
            1.408739537000656128e-01,
            1.332881003618240356e-01,
            1.259567737579345703e-01,
            1.163455024361610413e-01,
            1.104039251804351807e-01,
            1.011325269937515259e-01,
            9.348165988922119141e-02,
            8.301061391830444336e-02,
            6.303332746028900146e-02,
            3.136227279901504517e-02,
            9.745766408741474152e-03,
            -1.885868143290281296e-03,
            -1.861088722944259644e-02,
            -3.063177503645420074e-02,
            -4.277998581528663635e-02,
            -5.656200274825096130e-02,
            -6.802781671285629272e-02,
            -8.394680172204971313e-02,
            -1.008231714367866516e-01,
            -1.239241436123847961e-01,
            -1.361588686704635620e-01,
            -1.558130383491516113e-01,
            -1.692071855068206787e-01,
            -1.867721080780029297e-01,
            -2.009956687688827515e-01,
            -2.231980115175247192e-01,
            -2.443359345197677612e-01,
            -3.337543606758117676e-01,
            -4.643174111843109131e-01,
            -5.124946832656860352e-01,
            -5.269297957420349121e-01,
            -5.438812971115112305e-01,
            -5.556883215904235840e-01,
            -5.700231790542602539e-01,
            -5.783252120018005371e-01,
            -5.868437886238098145e-01,
            -5.931769013404846191e-01,
            -6.017340421676635742e-01,
            -6.060926914215087891e-01,
            -6.118045449256896973e-01,
            -6.168642044067382812e-01,
            -6.273455619812011719e-01,
            -6.342081427574157715e-01,
            -6.425213813781738281e-01,
            -6.488917469978332520e-01,
            -6.523205637931823730e-01,
            -6.562867760658264160e-01,
            -6.608253121376037598e-01,
            -6.613062620162963867e-01,
            -6.643314361572265625e-01,
            -6.621064543724060059e-01,
            -6.610168218612670898e-01,
            -6.573123931884765625e-01,
            -6.580746173858642578e-01,
            -6.548673510551452637e-01,
            -6.516790390014648438e-01,
            -6.466471552848815918e-01,
            -6.458957195281982422e-01,
            -6.422616243362426758e-01,
            -6.408356428146362305e-01,
            -6.344524025917053223e-01,
            -6.270635724067687988e-01,
            -6.208807229995727539e-01,
            -6.166085004806518555e-01,
            -5.996674299240112305e-01,
            -5.951166152954101562e-01,
            -5.875760912895202637e-01,
            -5.804095864295959473e-01,
            -5.731143951416015625e-01,
            -5.584998130798339844e-01,
            -5.506248474121093750e-01,
            -5.400618314743041992e-01,
            -5.278239846229553223e-01,
            -5.185021162033081055e-01,
            -5.034748315811157227e-01,
            -4.946184158325195312e-01,
            -4.840956926345825195e-01,
            -4.766143858432769775e-01,
            -4.641293585300445557e-01,
            -4.510037302970886230e-01,
            -4.424395561218261719e-01,
            -4.296032488346099854e-01,
            -4.173802137374877930e-01,
            -4.038850963115692139e-01,
            -3.870423436164855957e-01,
            -3.756472170352935791e-01,
            -3.644652068614959717e-01,
            -3.539886474609375000e-01,
            -3.441702425479888916e-01,
            -3.317852616310119629e-01,
            -3.201935291290283203e-01,
            -3.071163594722747803e-01,
            -2.931020855903625488e-01,
            -2.784726023674011230e-01,
            -2.646160423755645752e-01,
            -2.529956698417663574e-01,
            -2.388640791177749634e-01,
            -2.266088724136352539e-01,
            -2.114828675985336304e-01,
            -1.985444575548171997e-01,
            -1.818830817937850952e-01,
            -1.720273047685623169e-01,
            -1.620189100503921509e-01,
            -1.496868729591369629e-01,
            -1.388188004493713379e-01,
            -1.289174258708953857e-01,
            -1.180857270956039429e-01,
            -1.095208972692489624e-01,
            -9.778185188770294189e-02,
            -8.833235502243041992e-02,
            -7.851409912109375000e-02,
            -6.940758228302001953e-02,
            -5.849488079547882080e-02,
            -4.985491186380386353e-02,
            -4.153635352849960327e-02,
            -3.305261209607124329e-02,
            -2.613742090761661530e-02,
            -2.127493172883987427e-02,
            -1.581859216094017029e-02,
            -1.380576658993959427e-02,
            -5.833532195538282394e-03,
            -6.739879609085619450e-04,
            4.628541413694620132e-03,
            9.789463132619857788e-03,
            1.500946842133998871e-02,
            2.187188342213630676e-02,
            2.933852933347225189e-02,
            3.871386870741844177e-02,
            4.562988877296447754e-02,
            4.938556626439094543e-02,
            5.659714341163635254e-02,
            5.728934332728385925e-02,
            6.050040200352668762e-02,
            6.278187781572341919e-02,
            6.708230078220367432e-02,
            7.027737051248550415e-02,
            7.358743250370025635e-02,
            7.533292472362518311e-02,
            7.811993360519409180e-02,
            7.147575169801712036e-02,
            7.453232258558273315e-02,
            7.374241203069686890e-02,
            7.050230354070663452e-02,
            7.467424124479293823e-02,
            7.367254048585891724e-02,
            7.287672907114028931e-02,
            7.354167848825454712e-02,
            7.157637178897857666e-02,
            7.263478636741638184e-02,
            6.952736526727676392e-02,
            5.944044888019561768e-02,
            5.426876991987228394e-02,
            5.256198346614837646e-02,
            4.479804635047912598e-02,
            4.427967593073844910e-02,
            4.005892947316169739e-02,
            3.780037164688110352e-02,
            3.158452361822128296e-02,
            2.190603502094745636e-02,
            1.289253868162631989e-02,
            8.712547831237316132e-03,
            4.549187142401933670e-03,
            1.052180421538650990e-03,
            -3.965700045228004456e-03,
            -8.034016937017440796e-03,
            -1.473127864301204681e-02,
            -2.066402509808540344e-02,
            -2.739193849265575409e-02,
            -3.363943099975585938e-02,
            -4.558586701750755310e-02,
            -5.458829924464225769e-02,
            -6.556752324104309082e-02,
            -8.159373700618743896e-02,
            -9.373935312032699585e-02,
            -1.029185503721237183e-01,
            -1.180238798260688782e-01,
            -1.260388642549514771e-01,
            -1.440469175577163696e-01,
            -1.634291112422943115e-01,
            -1.807003617286682129e-01,
            -1.896788924932479858e-01,
            -1.983692049980163574e-01,
            -2.124667465686798096e-01,
            -2.268008589744567871e-01,
            -2.349381893873214722e-01,
            -2.459123581647872925e-01,
            -2.523118555545806885e-01,
            -2.626492381095886230e-01,
            -2.668335437774658203e-01,
            -2.732165753841400146e-01,
            -2.778967618942260742e-01,
            -2.878057062625885010e-01,
            -2.908146977424621582e-01,
            -3.115096092224121094e-01,
            -3.153671920299530029e-01,
            -3.254258036613464355e-01,
            -3.318820297718048096e-01,
            -3.417395651340484619e-01,
            -3.458335101604461670e-01,
            -3.538451194763183594e-01,
            -3.563506007194519043e-01,
            -3.641012907028198242e-01,
            -3.688009679317474365e-01,
            -3.755419552326202393e-01,
            -3.783897161483764648e-01,
            -3.684815764427185059e-01,
            -3.725837767124176025e-01,
            -3.794435262680053711e-01,
            -3.805540204048156738e-01,
            -3.880620598793029785e-01,
            -3.920084238052368164e-01,
            -3.957383930683135986e-01,
            -3.973813056945800781e-01,
            -4.047358632087707520e-01,
            -4.116308391094207764e-01,
            -4.178791642189025879e-01,
            -4.128425419330596924e-01,
            -4.171702563762664795e-01,
            -4.136054217815399170e-01,
            -4.193744063377380371e-01,
            -4.231285154819488525e-01,
            -4.278866350650787354e-01,
            -4.290480017662048340e-01,
            -4.301714301109313965e-01,
            -4.308189153671264648e-01,
            -4.370663762092590332e-01,
            -4.383206963539123535e-01,
            -4.497205913066864014e-01,
            -4.522168338298797607e-01,
            -4.575268030166625977e-01,
            -4.609213471412658691e-01,
            -4.649466574192047119e-01,
            -4.704675972461700439e-01,
            -4.798008203506469727e-01,
            -4.862146079540252686e-01,
            -4.939937591552734375e-01,
            -4.950372278690338135e-01,
            -4.977897405624389648e-01,
            -4.978958666324615479e-01,
            -5.028237700462341309e-01,
            -5.017759799957275391e-01,
            -5.037363767623901367e-01,
            -5.029972791671752930e-01,
            -5.039936900138854980e-01,
            -4.991888403892517090e-01,
            -5.007753968238830566e-01,
            -4.992773234844207764e-01,
            -4.997813701629638672e-01,
            -4.980280101299285889e-01,
            -4.976527392864227295e-01,
            -4.907916188240051270e-01,
            -4.858073592185974121e-01,
            -4.811368882656097412e-01,
            -4.760836958885192871e-01,
            -4.738018214702606201e-01,
            -4.654439687728881836e-01,
            -4.614975452423095703e-01,
            -4.584668576717376709e-01,
            -4.576868116855621338e-01,
            -4.563770592212677002e-01,
            -4.560723900794982910e-01,
            -4.541727602481842041e-01,
            -4.535001814365386963e-01,
            -4.520582854747772217e-01,
            -4.512980282306671143e-01,
            -4.477926194667816162e-01,
            -4.421447515487670898e-01,
            -4.362549185752868652e-01,
            -4.339088201522827148e-01,
            -4.301329851150512695e-01,
            -4.276952743530273438e-01,
            -4.231924712657928467e-01,
            -4.191601574420928955e-01,
            -4.126071631908416748e-01,
            -4.106402695178985596e-01,
            -4.069259166717529297e-01,
            -4.037401974201202393e-01,
            -3.990136682987213135e-01,
            -3.929814994335174561e-01,
            -3.881690800189971924e-01,
            -3.816941082477569580e-01,
            -3.710289895534515381e-01,
            -3.622980117797851562e-01,
            -3.596545457839965820e-01,
            -3.549861609935760498e-01,
            -3.505470752716064453e-01,
            -3.483681678771972656e-01,
            -3.390667140483856201e-01,
            -3.279220759868621826e-01,
            -3.148747682571411133e-01,
            -3.041542470455169678e-01,
            -2.958753407001495361e-01,
            -2.923676371574401855e-01,
            -2.851141989231109619e-01,
            -2.515493929386138916e-01,
            -2.427354604005813599e-01,
            -2.304708659648895264e-01,
            -2.187962681055068970e-01,
            -2.126918882131576538e-01,
            -2.048226594924926758e-01,
            -1.990527361631393433e-01,
            -1.917775571346282959e-01,
            -1.825809627771377563e-01,
            -1.767335832118988037e-01,
            -1.731699556112289429e-01,
            -1.685845404863357544e-01,
            -1.650195270776748657e-01,
            -1.585382968187332153e-01,
            -1.514565944671630859e-01,
            -1.456789821386337280e-01,
            -1.412438303232192993e-01,
            -1.394359171390533447e-01,
            -1.338846236467361450e-01,
            -1.269068121910095215e-01,
            -1.221639737486839294e-01,
            -1.181854829192161560e-01,
            -1.164950355887413025e-01,
            -1.124657541513442993e-01,
            -1.107200607657432556e-01,
            -1.070810481905937195e-01,
            -1.017649695277214050e-01,
            -9.656481444835662842e-02,
            -9.300671517848968506e-02,
            -8.673366159200668335e-02,
            -8.173213154077529907e-02,
            -7.247295975685119629e-02,
            -6.606759130954742432e-02,
            -1.302635669708251953e-02
        },

        {
            2.719035372138023376e-02,
            4.523978009819984436e-02,
            5.962694808840751648e-02,
            6.926262378692626953e-02,
            7.700283825397491455e-02,
            8.422243595123291016e-02,
            9.098649770021438599e-02,
            9.752407670021057129e-02,
            1.034143120050430298e-01,
            1.094015911221504211e-01,
            1.154439896345138550e-01,
            1.205136105418205261e-01,
            1.261152029037475586e-01,
            1.317949891090393066e-01,
            1.372776925563812256e-01,
            1.415553838014602661e-01,
            1.467000544071197510e-01,
            1.512706726789474487e-01,
            1.562671065330505371e-01,
            1.597884595394134521e-01,
            1.632719784975051880e-01,
            1.658017486333847046e-01,
            1.680216789245605469e-01,
            1.711510419845581055e-01,
            1.728419512510299683e-01,
            1.753522306680679321e-01,
            1.781585067510604858e-01,
            1.796877533197402954e-01,
            1.818526238203048706e-01,
            1.833630204200744629e-01,
            1.851328909397125244e-01,
            1.837899833917617798e-01,
            1.855248212814331055e-01,
            1.854967921972274780e-01,
            1.852564811706542969e-01,
            1.837348937988281250e-01,
            1.818067729473114014e-01,
            1.805329173803329468e-01,
            1.792584657669067383e-01,
            1.756941527128219604e-01,
            1.730493903160095215e-01,
            1.698476076126098633e-01,
            1.678208857774734497e-01,
            1.640880703926086426e-01,
            1.608190834522247314e-01,
            1.559670716524124146e-01,
            1.525434404611587524e-01,
            1.484819799661636353e-01,
            1.446488350629806519e-01,
            1.390505433082580566e-01,
            1.344840228557586670e-01,
            1.297025829553604126e-01,
            1.237359493970870972e-01,
            1.186420544981956482e-01,
            1.131575778126716614e-01,
            1.053600460290908813e-01,
            1.008829697966575623e-01,
            9.556426107883453369e-02,
            8.934275060892105103e-02,
            8.109475672245025635e-02,
            7.148452103137969971e-02,
            6.258700042963027954e-02,
            5.548271164298057556e-02,
            4.550741612911224365e-02,
            3.681384027004241943e-02,
            2.741829678416252136e-02,
            2.026947773993015289e-02,
            1.117539405822753906e-02,
            3.435889724642038345e-03,
            -5.067136604338884354e-03,
            -1.222276408225297928e-02,
            -2.083323337137699127e-02,
            -2.953746914863586426e-02,
            -3.850591182708740234e-02,
            -4.902272298932075500e-02,
            -6.357175856828689575e-02,
            -7.692007720470428467e-02,
            -8.694164454936981201e-02,
            -9.472806751728057861e-02,
            -1.045281365513801575e-01,
            -1.141894906759262085e-01,
            -1.243285238742828369e-01,
            -1.315839439630508423e-01,
            -1.406737715005874634e-01,
            -1.490679532289505005e-01,
            -1.579605937004089355e-01,
            -1.662002205848693848e-01,
            -1.765853166580200195e-01,
            -1.870290637016296387e-01,
            -1.969091147184371948e-01,
            -2.054686397314071655e-01,
            -2.150577008724212646e-01,
            -2.244947403669357300e-01,
            -2.363725304603576660e-01,
            -2.477173209190368652e-01,
            -2.595249414443969727e-01,
            -2.699011564254760742e-01,
            -2.774736285209655762e-01,
            -2.854512333869934082e-01,
            -2.937439680099487305e-01,
            -3.029501438140869141e-01,
            -3.101049959659576416e-01,
            -3.177717328071594238e-01,
            -3.247596621513366699e-01,
            -3.318444788455963135e-01,
            -3.378620445728302002e-01,
            -3.450565636157989502e-01,
            -3.520973920822143555e-01,
            -3.581489920616149902e-01,
            -3.641549050807952881e-01,
            -3.710431456565856934e-01,
            -3.765272200107574463e-01,
            -3.816856145858764648e-01,
            -3.863396346569061279e-01,
            -3.912733793258666992e-01,
            -3.958765566349029541e-01,
            -4.011670649051666260e-01,
            -4.066943228244781494e-01,
            -4.118546545505523682e-01,
            -4.168716967105865479e-01,
            -4.225783050060272217e-01,
            -4.269878268241882324e-01,
            -4.314391911029815674e-01,
            -4.369561970233917236e-01,
            -4.422650635242462158e-01,
            -4.466262459754943848e-01,
            -4.502780437469482422e-01,
            -4.533017277717590332e-01,
            -4.571673274040222168e-01,
            -4.614199697971343994e-01,
            -4.651142358779907227e-01,
            -4.715041220188140869e-01,
            -4.785047173500061035e-01,
            -4.812338054180145264e-01,
            -4.844440221786499023e-01,
            -4.871070384979248047e-01,
            -4.905281960964202881e-01,
            -4.947370588779449463e-01,
            -4.980169832706451416e-01,
            -4.982052743434906006e-01,
            -4.990586042404174805e-01,
            -4.997589886188507080e-01,
            -5.014322400093078613e-01,
            -5.027790069580078125e-01,
            -5.028496980667114258e-01,
            -5.019446611404418945e-01,
            -5.017395019531250000e-01,
            -5.026428103446960449e-01,
            -5.009162425994873047e-01,
            -5.039274692535400391e-01,
            -5.077610611915588379e-01,
            -5.055159926414489746e-01,
            -5.053000450134277344e-01,
            -5.049039125442504883e-01,
            -5.034790039062500000e-01,
            -5.010672807693481445e-01,
            -5.008748769760131836e-01,
            -4.993310272693634033e-01,
            -4.991498589515686035e-01,
            -4.989702403545379639e-01,
            -4.979358911514282227e-01,
            -4.972524642944335938e-01,
            -4.956583976745605469e-01,
            -4.931858181953430176e-01,
            -4.924829304218292236e-01,
            -4.923160970211029053e-01,
            -4.918526411056518555e-01,
            -4.898027181625366211e-01,
            -4.868463277816772461e-01,
            -4.842504262924194336e-01,
            -4.811762571334838867e-01,
            -4.786733686923980713e-01,
            -4.755795896053314209e-01,
            -4.732437431812286377e-01,
            -4.708419144153594971e-01,
            -4.702417552471160889e-01,
            -4.665540158748626709e-01,
            -4.633028209209442139e-01,
            -4.607416391372680664e-01,
            -4.588711559772491455e-01,
            -4.565834105014801025e-01,
            -4.544571638107299805e-01,
            -4.521088600158691406e-01,
            -4.505224823951721191e-01,
            -4.484255611896514893e-01,
            -4.459314346313476562e-01,
            -4.422495961189270020e-01,
            -4.399903714656829834e-01,
            -4.369713664054870605e-01,
            -4.336806833744049072e-01,
            -4.311256110668182373e-01,
            -4.297414124011993408e-01,
            -4.266220927238464355e-01,
            -4.254485070705413818e-01,
            -4.236609935760498047e-01,
            -4.229409992694854736e-01,
            -4.225413203239440918e-01,
            -4.199616611003875732e-01,
            -4.178167581558227539e-01,
            -4.157130420207977295e-01,
            -4.118878245353698730e-01,
            -4.082531929016113281e-01,
            -4.052200317382812500e-01,
            -4.027659595012664795e-01,
            -4.007935822010040283e-01,
            -3.985457122325897217e-01,
            -3.941514194011688232e-01,
            -3.902302384376525879e-01,
            -3.873962163925170898e-01,
            -3.854133188724517822e-01,
            -3.829655051231384277e-01,
            -3.818555176258087158e-01,
            -3.802303075790405273e-01,
            -3.781728446483612061e-01,
            -3.768150806427001953e-01,
            -3.751172721385955811e-01,
            -3.737889230251312256e-01,
            -3.726275265216827393e-01,
            -3.704117536544799805e-01,
            -3.694652616977691650e-01,
            -3.676246702671051025e-01,
            -3.666845858097076416e-01,
            -3.644088208675384521e-01,
            -3.629565834999084473e-01,
            -3.605775535106658936e-01,
            -3.563973009586334229e-01,
            -3.536417484283447266e-01,
            -3.531030416488647461e-01,
            -3.511764705181121826e-01,
            -3.501215577125549316e-01,
            -3.489091098308563232e-01,
            -3.472069799900054932e-01,
            -3.443872034549713135e-01,
            -3.429934680461883545e-01,
            -3.406575918197631836e-01,
            -3.386058211326599121e-01,
            -3.373580276966094971e-01,
            -3.357899785041809082e-01,
            -3.331234157085418701e-01,
            -3.305565118789672852e-01,
            -3.279860615730285645e-01,
            -3.255668580532073975e-01,
            -3.232117593288421631e-01,
            -3.215406537055969238e-01,
            -3.170309364795684814e-01,
            -3.145997822284698486e-01,
            -3.122948110103607178e-01,
            -3.095191717147827148e-01,
            -3.078608512878417969e-01,
            -3.061626553535461426e-01,
            -3.038427233695983887e-01,
            -3.018386363983154297e-01,
            -2.996669113636016846e-01,
            -2.970649302005767822e-01,
            -2.943356335163116455e-01,
            -2.913344502449035645e-01,
            -2.899195253849029541e-01,
            -2.880594730377197266e-01,
            -2.862868309020996094e-01,
            -2.827160060405731201e-01,
            -2.810387313365936279e-01,
            -2.777788937091827393e-01,
            -2.743859291076660156e-01,
            -2.702975571155548096e-01,
            -2.649542987346649170e-01,
            -2.615290582180023193e-01,
            -2.596072852611541748e-01,
            -2.556761801242828369e-01,
            -2.534994482994079590e-01,
            -2.508793473243713379e-01,
            -2.493658214807510376e-01,
            -2.461167275905609131e-01,
            -2.429297417402267456e-01,
            -2.395204752683639526e-01,
            -2.363048493862152100e-01,
            -2.321121096611022949e-01,
            -2.283606827259063721e-01,
            -2.239847183227539062e-01,
            -2.202989906072616577e-01,
            -2.154131680727005005e-01,
            -2.110763937234878540e-01,
            -2.032124251127243042e-01,
            -1.962030827999114990e-01,
            -1.907056421041488647e-01,
            -1.855777502059936523e-01,
            -1.798432320356369019e-01,
            -1.737016737461090088e-01,
            -1.669216901063919067e-01,
            -1.609760820865631104e-01,
            -1.528909355401992798e-01,
            -1.452403515577316284e-01,
            -1.372955143451690674e-01,
            -1.306411176919937134e-01,
            -1.216561645269393921e-01,
            -1.144938841462135315e-01,
            -1.059823855757713318e-01,
            -9.749784320592880249e-02,
            -8.896305412054061890e-02,
            -8.037685602903366089e-02,
            -5.077634751796722412e-02,
            -1.960343122482299805e-02,
            -5.795089527964591980e-03,
            2.461253432556986809e-03,
            1.058930251747369766e-02,
            1.735299266874790192e-02,
            2.483509108424186707e-02,
            3.039362095296382904e-02,
            3.735871240496635437e-02,
            4.240303859114646912e-02,
            4.999760910868644714e-02,
            5.768806487321853638e-02,
            6.344145536422729492e-02,
            6.810144335031509399e-02,
            7.978910952806472778e-02,
            8.462080359458923340e-02,
            8.923388272523880005e-02,
            9.376356005668640137e-02,
            9.948737174272537231e-02,
            1.052362322807312012e-01,
            1.108224466443061829e-01,
            1.153941676020622253e-01,
            1.221784278750419617e-01,
            1.266167461872100830e-01,
            1.303034275770187378e-01,
            1.337090432643890381e-01,
            1.378073245286941528e-01,
            1.413679718971252441e-01,
            1.464125066995620728e-01,
            1.496309489011764526e-01,
            1.534083932638168335e-01,
            1.558752059936523438e-01,
            1.590975821018218994e-01,
            1.616771817207336426e-01,
            1.658140420913696289e-01,
            1.683406084775924683e-01,
            1.709674894809722900e-01,
            1.729321479797363281e-01,
            1.771481782197952271e-01,
            1.836624890565872192e-01,
            1.873586624860763550e-01,
            1.902810931205749512e-01,
            1.928355842828750610e-01,
            1.952054649591445923e-01,
            1.985445022583007812e-01,
            1.996173262596130371e-01,
            2.026767432689666748e-01,
            2.037613987922668457e-01,
            2.058376818895339966e-01,
            2.074354588985443115e-01,
            2.090715318918228149e-01,
            2.112859487533569336e-01,
            2.133184522390365601e-01,
            2.159009873867034912e-01,
            2.186055481433868408e-01,
            2.210441380739212036e-01,
            2.237057238817214966e-01,
            2.272163331508636475e-01,
            2.299850583076477051e-01,
            2.320881485939025879e-01,
            2.327519208192825317e-01,
            2.340100258588790894e-01,
            2.344825714826583862e-01,
            2.340394854545593262e-01,
            2.335447072982788086e-01,
            2.334721386432647705e-01,
            2.335973083972930908e-01,
            2.341042011976242065e-01,
            2.341217994689941406e-01,
            2.337987720966339111e-01,
            2.344547957181930542e-01,
            2.351392060518264771e-01,
            2.359622269868850708e-01,
            2.376383543014526367e-01,
            2.379137873649597168e-01,
            2.387586534023284912e-01,
            2.429669350385665894e-01,
            2.449847906827926636e-01,
            2.451557219028472900e-01,
            2.461101114749908447e-01,
            2.473982423543930054e-01,
            2.482845187187194824e-01,
            2.497612535953521729e-01,
            2.509298622608184814e-01,
            2.516491711139678955e-01,
            2.523537278175354004e-01,
            2.538464963436126709e-01,
            2.551183402538299561e-01,
            2.581426501274108887e-01,
            2.605154216289520264e-01,
            2.624766826629638672e-01,
            2.644545137882232666e-01,
            2.656073272228240967e-01,
            2.672606408596038818e-01,
            2.709922194480895996e-01,
            2.749983966350555420e-01,
            2.778632044792175293e-01,
            2.796971201896667480e-01,
            2.817818522453308105e-01,
            2.843050956726074219e-01,
            2.869711220264434814e-01,
            2.898770272731781006e-01,
            2.935166954994201660e-01,
            2.964880764484405518e-01,
            3.018695116043090820e-01,
            3.049700558185577393e-01,
            3.093318939208984375e-01,
            3.118984103202819824e-01,
            3.156968653202056885e-01,
            3.186040818691253662e-01,
            3.234182298183441162e-01,
            3.270557820796966553e-01,
            3.344298303127288818e-01,
            3.415545225143432617e-01,
            3.475033640861511230e-01,
            3.510477840900421143e-01,
            3.555764555931091309e-01,
            3.595767021179199219e-01,
            3.633505105972290039e-01,
            3.669113218784332275e-01,
            3.703365623950958252e-01,
            3.724525570869445801e-01,
            3.770068287849426270e-01,
            3.806031644344329834e-01,
            3.863984942436218262e-01,
            3.886030912399291992e-01,
            3.921321332454681396e-01,
            3.949821293354034424e-01,
            4.002548456192016602e-01,
            4.030180275440216064e-01,
            4.066590368747711182e-01,
            4.110924899578094482e-01,
            4.170547127723693848e-01,
            4.236930310726165771e-01,
            4.304617047309875488e-01,
            4.331074357032775879e-01,
            4.372807145118713379e-01,
            4.401188790798187256e-01,
            4.436592161655426025e-01,
            4.444094598293304443e-01,
            4.461922645568847656e-01,
            4.482510983943939209e-01,
            4.522523581981658936e-01,
            4.535097479820251465e-01,
            4.565944671630859375e-01,
            4.594109058380126953e-01,
            4.625515043735504150e-01,
            4.652591049671173096e-01,
            4.705261588096618652e-01,
            4.746383130550384521e-01,
            4.781565070152282715e-01,
            4.844035208225250244e-01,
            4.889657497406005859e-01,
            4.921494424343109131e-01,
            4.959279000759124756e-01,
            5.015599131584167480e-01,
            5.058519244194030762e-01,
            5.077275633811950684e-01,
            5.119869709014892578e-01,
            5.131431818008422852e-01,
            5.158826112747192383e-01,
            5.171922445297241211e-01,
            5.191126465797424316e-01,
            5.202094316482543945e-01,
            5.232945680618286133e-01,
            5.235775113105773926e-01,
            5.252534151077270508e-01,
            5.244009494781494141e-01,
            5.267360806465148926e-01,
            5.268502831459045410e-01,
            5.272494554519653320e-01,
            5.260985493659973145e-01,
            5.266140699386596680e-01,
            5.245137214660644531e-01,
            5.250854492187500000e-01,
            5.241450071334838867e-01,
            5.242224931716918945e-01,
            5.240517258644104004e-01,
            5.233424901962280273e-01,
            5.222123265266418457e-01,
            5.227461457252502441e-01,
            5.204628705978393555e-01,
            5.198481678962707520e-01,
            5.186837315559387207e-01,
            5.178924798965454102e-01,
            5.150048732757568359e-01,
            5.159369111061096191e-01,
            5.165771245956420898e-01,
            5.178896188735961914e-01,
            5.176134705543518066e-01,
            5.147662162780761719e-01,
            5.110472440719604492e-01,
            5.105906128883361816e-01,
            5.083315372467041016e-01,
            5.076313614845275879e-01,
            5.052410364151000977e-01,
            5.036340355873107910e-01,
            5.001711845397949219e-01,
            4.988231956958770752e-01,
            4.952363073825836182e-01,
            4.932591319084167480e-01,
            4.889456033706665039e-01,
            4.866822361946105957e-01,
            4.829355478286743164e-01,
            4.801856577396392822e-01,
            4.771533906459808350e-01,
            4.726666808128356934e-01,
            4.661536514759063721e-01,
            4.612259864807128906e-01,
            4.554028809070587158e-01,
            4.509868025779724121e-01,
            4.451134800910949707e-01,
            4.381679892539978027e-01,
            4.308199882507324219e-01,
            4.246871173381805420e-01,
            4.173346161842346191e-01,
            4.114493727684020996e-01,
            4.046278893947601318e-01,
            4.001401960849761963e-01,
            3.927238285541534424e-01,
            3.859008550643920898e-01,
            3.773779273033142090e-01,
            3.696440756320953369e-01,
            3.600751757621765137e-01,
            3.525798618793487549e-01,
            3.428574204444885254e-01,
            3.342917859554290771e-01,
            3.252998888492584229e-01,
            3.161323368549346924e-01,
            3.081889450550079346e-01,
            3.001442551612854004e-01,
            2.923392653465270996e-01,
            2.840490341186523438e-01,
            2.763205766677856445e-01,
            2.685286700725555420e-01,
            2.604366242885589600e-01,
            2.516341209411621094e-01,
            2.423593699932098389e-01,
            2.333560883998870850e-01,
            2.240835130214691162e-01,
            2.149408161640167236e-01,
            2.079201936721801758e-01,
            2.002473324537277222e-01,
            1.927304118871688843e-01,
            1.845071911811828613e-01,
            1.758150905370712280e-01,
            1.670414954423904419e-01,
            1.598826497793197632e-01,
            1.522843986749649048e-01,
            1.459110826253890991e-01,
            1.388069242238998413e-01,
            1.327459514141082764e-01,
            1.256721168756484985e-01,
            1.180969998240470886e-01,
            1.086488664150238037e-01,
            1.010882034897804260e-01,
            9.508361667394638062e-02,
            8.782310783863067627e-02,
            8.042617887258529663e-02,
            7.422180473804473877e-02,
            6.579799205064773560e-02,
            5.770195275545120239e-02,
            4.915698990225791931e-02,
            4.062616452574729919e-02,
            3.105460852384567261e-02,
            2.656725235283374786e-02,
            2.059710957109928131e-02,
            1.096163690090179443e-02,
            5.409309640526771545e-03,
            1.556103816255927086e-03,
            -1.630172715522348881e-03,
            -5.510652903467416763e-03,
            -9.862823411822319031e-03,
            -1.380687393248081207e-02,
            -1.776140928268432617e-02,
            -2.079785056412220001e-02,
            -2.496747672557830811e-02,
            -2.830320037901401520e-02,
            -3.551196679472923279e-02,
            -3.799885883927345276e-02,
            -4.073966294527053833e-02,
            -4.195057600736618042e-02,
            -4.341194033622741699e-02,
            -4.520377144217491150e-02,
            -4.613564535975456238e-02,
            -4.570483043789863586e-02,
            -4.596285521984100342e-02,
            -4.507523402571678162e-02,
            -4.412990435957908630e-02,
            -4.296299442648887634e-02,
            -4.247643798589706421e-02,
            -3.986724838614463806e-02,
            -3.738854080438613892e-02,
            -3.411450982093811035e-02,
            -3.102885931730270386e-02,
            -2.768606133759021759e-02,
            -2.428985200822353363e-02,
            -1.940263807773590088e-02,
            -1.586011238396167755e-02,
            -3.062608418986201286e-03,
            -6.341555621474981308e-03
        },

        {
            1.942284777760505676e-02,
            1.669676043093204498e-02,
            7.070746738463640213e-03,
            -1.114513142965734005e-03,
            -6.895292550325393677e-03,
            -1.016830466687679291e-02,
            -1.206257566809654236e-02,
            -1.294270064681768417e-02,
            -1.616278290748596191e-02,
            -1.682362891733646393e-02,
            -2.066774480044841766e-02,
            -2.277124300599098206e-02,
            -2.646688558161258698e-02,
            -2.683995477855205536e-02,
            -2.987285889685153961e-02,
            -3.068668954074382782e-02,
            -3.426853194832801819e-02,
            -3.298190608620643616e-02,
            -3.339870646595954895e-02,
            -3.066683560609817505e-02,
            -3.158077597618103027e-02,
            -2.969821915030479431e-02,
            -2.862047404050827026e-02,
            -2.666893228888511658e-02,
            -2.715366892516613007e-02,
            -2.312898449599742889e-02,
            -2.222229540348052979e-02,
            -1.924421638250350952e-02,
            -1.918704435229301453e-02,
            -1.581089757382869720e-02,
            -1.231771707534790039e-02,
            -7.260076235979795456e-03,
            -3.730638884007930756e-03,
            1.270275213755667210e-03,
            5.550126545131206512e-03,
            1.229588687419891357e-02,
            1.851921156048774719e-02,
            2.816515788435935974e-02,
            3.511651605367660522e-02,
            4.282516613602638245e-02,
            4.712836071848869324e-02,
            5.455313250422477722e-02,
            6.022867560386657715e-02,
            7.800523191690444946e-02,
            8.545387536287307739e-02,
            9.280204027891159058e-02,
            9.544862806797027588e-02,
            1.046593636274337769e-01,
            1.098065003752708435e-01,
            1.159713268280029297e-01,
            1.222598627209663391e-01,
            1.281571537256240845e-01,
            1.330152601003646851e-01,
            1.396492123603820801e-01,
            1.451530903577804565e-01,
            1.550542861223220825e-01,
            1.605153977870941162e-01,
            1.671629548072814941e-01,
            1.710585653781890869e-01,
            1.798283159732818604e-01,
            1.842613369226455688e-01,
            1.941960453987121582e-01,
            1.967628598213195801e-01,
            2.023154795169830322e-01,
            2.058092355728149414e-01,
            2.122485041618347168e-01,
            2.149522900581359863e-01,
            2.208444327116012573e-01,
            2.211796194314956665e-01,
            2.251693755388259888e-01,
            2.270843386650085449e-01,
            2.350480556488037109e-01,
            2.387219518423080444e-01,
            2.411505579948425293e-01,
            2.454884052276611328e-01,
            2.554184794425964355e-01,
